<?xml version="1.0"?>
<opencv_storage>
<cascade>
  <stageType>BOOST</stageType>
  <featureType>LBP</featureType>
  <height>13</height>
  <width>52</width>
  <stageParams>
    <boostType>GAB</boostType>
    <minHitRate>9.9500000476837158e-01</minHitRate>
    <maxFalseAlarm>4.4999998807907104e-01</maxFalseAlarm>
    <weightTrimRate>9.4999999999999996e-01</weightTrimRate>
    <maxDepth>1</maxDepth>
    <maxWeakCount>100</maxWeakCount></stageParams>
  <featureParams>
    <maxCatCount>256</maxCatCount>
    <featSize>1</featSize></featureParams>
  <stageNum>12</stageNum>
  <stages>
    <!-- stage 0 -->
    <_>
      <maxWeakCount>4</maxWeakCount>
      <stageThreshold>-1.7227731943130493e+00</stageThreshold>
      <weakClassifiers>
        <_>
          <internalNodes>
            0 -1 26 -138871812 -657064 -116025859 -4910147 -3425793
            -4673638 -1616994305 -1076949620</internalNodes>
          <leafValues>
            -8.6207956075668335e-01 4.9403837323188782e-01</leafValues></_>
        <_>
          <internalNodes>
            0 -1 4 -271585554 -823213362 -825586454 -823737650
            -828588035 1090869309 -276108817 -11265</internalNodes>
          <leafValues>
            -7.9507851600646973e-01 5.1820439100265503e-01</leafValues></_>
        <_>
          <internalNodes>
            0 -1 19 -788464132 -167980584 -568583685 -711603964
            -1383531521 -540145509 -1694314513 -1901395830</internalNodes>
          <leafValues>
            -6.1181068420410156e-01 6.4822566509246826e-01</leafValues></_>
        <_>
          <internalNodes>
            0 -1 70 -4098 219976632 822083720 282877694 1500001688
            21254148 1938038557 2141192159</internalNodes>
          <leafValues>
            -6.7666053771972656e-01 5.4619556665420532e-01</leafValues></_></weakClassifiers></_>
    <!-- stage 1 -->
    <_>
      <maxWeakCount>4</maxWeakCount>
      <stageThreshold>-1.6609666347503662e+00</stageThreshold>
      <weakClassifiers>
        <_>
          <internalNodes>
            0 -1 38 1561368061 -2639375 1964023293 -33688227 -1148675073
            -4546883 -7819265 -1074265908</internalNodes>
          <leafValues>
            -8.5284674167633057e-01 7.4339622259140015e-01</leafValues></_>
        <_>
          <internalNodes>
            0 -1 22 4592 -15480600 -1722476547 2143259125 -1147618625
            -1612084998 -1843679809 -1895167572</internalNodes>
          <leafValues>
            -7.7250748872756958e-01 5.9316825866699219e-01</leafValues></_>
        <_>
          <internalNodes>
            0 -1 34 336615864 -573296175 1367383551 -2271780 -1417611062
            -6455127 186662911 -1081343868</internalNodes>
          <leafValues>
            -6.7547762393951416e-01 6.2161684036254883e-01</leafValues></_>
        <_>
          <internalNodes>
            0 -1 58 489708788 -102895148 1606049009 -67136011
            -1712795938 -810710343 -1551320627 -1346697048</internalNodes>
          <leafValues>
            -5.9050732851028442e-01 6.3986515998840332e-01</leafValues></_></weakClassifiers></_>
    <!-- stage 2 -->
    <_>
      <maxWeakCount>6</maxWeakCount>
      <stageThreshold>-1.7792731523513794e+00</stageThreshold>
      <weakClassifiers>
        <_>
          <internalNodes>
            0 -1 44 1402265085 -140803 -48472067 -2121731 -4391937
            -4482647 -1145257985 -1080554100</internalNodes>
          <leafValues>
            -8.2746267318725586e-01 5.0804597139358521e-01</leafValues></_>
        <_>
          <internalNodes>
            0 -1 62 -1342172912 -537060363 -70289571 2111636415
            -1078215761 -8774 -1146360833 -1078262519</internalNodes>
          <leafValues>
            -7.1500921249389648e-01 4.6535360813140869e-01</leafValues></_>
        <_>
          <internalNodes>
            0 -1 17 795123452 -1146356 -1632071681 1046875596
            -1086619649 -65622 -71385345 -1146484724</internalNodes>
          <leafValues>
            -7.3627978563308716e-01 4.3267300724983215e-01</leafValues></_>
        <_>
          <internalNodes>
            0 -1 23 -319821946 15728302 -285217180 -489427222
            -1904214101 1124073327 2004874951 -209717249</internalNodes>
          <leafValues>
            -5.3535616397857666e-01 5.5486541986465454e-01</leafValues></_>
        <_>
          <internalNodes>
            0 -1 51 420483088 -241167 -572590081 2138403741 -1159151874
            -4543367 -1145275393 -1162473068</internalNodes>
          <leafValues>
            -6.7187696695327759e-01 4.4688138365745544e-01</leafValues></_>
        <_>
          <internalNodes>
            0 -1 56 -805311377 1617882991 -352688606 -496392285
            1735904331 4618151 -768104702 -138422977</internalNodes>
          <leafValues>
            -5.0226831436157227e-01 5.7822692394256592e-01</leafValues></_></weakClassifiers></_>
    <!-- stage 3 -->
    <_>
      <maxWeakCount>6</maxWeakCount>
      <stageThreshold>-1.6612462997436523e+00</stageThreshold>
      <weakClassifiers>
        <_>
          <internalNodes>
            0 -1 28 -1072700894 -203427121 -652748321 -2099353
            -123994193 -98570033 -73405441 -402659449</internalNodes>
          <leafValues>
            -8.2875299453735352e-01 2.5967365503311157e-01</leafValues></_>
        <_>
          <internalNodes>
            0 -1 42 1596986776 -549988867 1027185117 -18595 -1153754115
            -6333959 -272581889 -1077993729</internalNodes>
          <leafValues>
            -6.4214748144149780e-01 4.6995523571968079e-01</leafValues></_>
        <_>
          <internalNodes>
            0 -1 54 -1030 964470236 -1347013856 835244510 2135303140
            340816124 2002589372 -1</internalNodes>
          <leafValues>
            -5.4874122142791748e-01 4.9363529682159424e-01</leafValues></_>
        <_>
          <internalNodes>
            0 -1 61 268440785 -40226 -579002371 -44336129 -268764226
            -342889990 -1262568485 -1617231681</internalNodes>
          <leafValues>
            -5.4835408926010132e-01 4.8903086781501770e-01</leafValues></_>
        <_>
          <internalNodes>
            0 -1 68 -1063002110 -83889097 -746065689 -1066403937
            -362625021 -118503269 -609224641 1114359367</internalNodes>
          <leafValues>
            -5.5946791172027588e-01 4.9240991473197937e-01</leafValues></_>
        <_>
          <internalNodes>
            0 -1 18 -2066947352 -4580386 -327483553 -4314422 -1566835725
            -5524997 -1533935617 -1892808532</internalNodes>
          <leafValues>
            -6.1453443765640259e-01 4.2883235216140747e-01</leafValues></_></weakClassifiers></_>
    <!-- stage 4 -->
    <_>
      <maxWeakCount>6</maxWeakCount>
      <stageThreshold>-1.6863514184951782e+00</stageThreshold>
      <weakClassifiers>
        <_>
          <internalNodes>
            0 -1 9 -2162689 -2164225 -1667301889 -1076169570 -541066241
            -529685 -67108865 -1025</internalNodes>
          <leafValues>
            -7.6145201921463013e-01 4.1789051890373230e-01</leafValues></_>
        <_>
          <internalNodes>
            0 -1 88 -241 -288358418 -31217152 -991232114 -537924349
            1105715695 -788736 -134744113</internalNodes>
          <leafValues>
            -5.8280283212661743e-01 5.8244991302490234e-01</leafValues></_>
        <_>
          <internalNodes>
            0 -1 50 -786754 98367214 -1134294280 335062674 1027616844
            399542956 1703243920 -1048577</internalNodes>
          <leafValues>
            -5.1803129911422729e-01 5.3460782766342163e-01</leafValues></_>
        <_>
          <internalNodes>
            0 -1 36 1034993400 -3492904 484202233 -1107842324 1537130492
            -1075385496 -1075069185 263717276</internalNodes>
          <leafValues>
            -7.8698974847793579e-01 3.4704908728599548e-01</leafValues></_>
        <_>
          <internalNodes>
            0 -1 14 -18094358 -458494358 -1406745430 586033903
            -478944269 1454887095 -705429505 -402669713</internalNodes>
          <leafValues>
            -6.5006035566329956e-01 3.8908722996711731e-01</leafValues></_>
        <_>
          <internalNodes>
            0 -1 64 -1048834 2143059964 2147262460 1072214012
            -1074253827 980711421 1065140220 -1</internalNodes>
          <leafValues>
            -4.7880190610885620e-01 5.2328091859817505e-01</leafValues></_></weakClassifiers></_>
    <!-- stage 5 -->
    <_>
      <maxWeakCount>7</maxWeakCount>
      <stageThreshold>-1.4463306665420532e+00</stageThreshold>
      <weakClassifiers>
        <_>
          <internalNodes>
            0 -1 0 -288428033 -2081 -2138113 -2369537 -336638977
            -2124865 -538215425 -823244548</internalNodes>
          <leafValues>
            -7.9853779077529907e-01 1.1159737408161163e-01</leafValues></_>
        <_>
          <internalNodes>
            0 -1 11 -11612162 -83012 -1222983937 -1073825188 2147351550
            -278991943 -301989889 -1359077202</internalNodes>
          <leafValues>
            -6.8298733234405518e-01 3.0387049913406372e-01</leafValues></_>
        <_>
          <internalNodes>
            0 -1 71 -1073495037 -526401 -4097 -134221825 -272631809
            -8209 -302260289 -805058777</internalNodes>
          <leafValues>
            -4.5775440335273743e-01 5.5865514278411865e-01</leafValues></_>
        <_>
          <internalNodes>
            0 -1 3 1743054076 -608900308 740748543 -537072468 -450183169
            -5259585 1600847871 -273940242</internalNodes>
          <leafValues>
            -5.4374051094055176e-01 4.4822746515274048e-01</leafValues></_>
        <_>
          <internalNodes>
            0 -1 80 -67112260 671134612 847511724 928831982 2020091616
            1563709648 1517114316 2105147327</internalNodes>
          <leafValues>
            -6.7776989936828613e-01 3.5637837648391724e-01</leafValues></_>
        <_>
          <internalNodes>
            0 -1 31 -269229521 -1494360338 -375665242 -525407282
            -210769073 628643429 1617622853 -170393633</internalNodes>
          <leafValues>
            -5.2424287796020508e-01 3.9371520280838013e-01</leafValues></_>
        <_>
          <internalNodes>
            0 -1 72 1034969084 2145343449 -1690542691 2136471037
            800087545 -541386344 -1277251591 -1957164796</internalNodes>
          <leafValues>
            -6.5193492174148560e-01 3.4170907735824585e-01</leafValues></_></weakClassifiers></_>
    <!-- stage 6 -->
    <_>
      <maxWeakCount>8</maxWeakCount>
      <stageThreshold>-1.5760006904602051e+00</stageThreshold>
      <weakClassifiers>
        <_>
          <internalNodes>
            0 -1 30 361772029 -69239303 -14958593 -4196873 -1348730881
            -1049601 -1082146817 -1615918595</internalNodes>
          <leafValues>
            -7.9368489980697632e-01 5.8971140533685684e-02</leafValues></_>
        <_>
          <internalNodes>
            0 -1 8 -1884639234 -2127777 -1716803969 -2113698 -131073
            -537133573 -1075007489 -10503170</internalNodes>
          <leafValues>
            -5.8774167299270630e-01 3.6730435490608215e-01</leafValues></_>
        <_>
          <internalNodes>
            0 -1 35 -1073232637 -142612689 -16778241 -167806985 -1 -1
            -335544321 -1053325433</internalNodes>
          <leafValues>
            -4.1498073935508728e-01 5.2817451953887939e-01</leafValues></_>
        <_>
          <internalNodes>
            0 -1 49 -530062334 -3734725 -31469101 1970011751 1783623663
            -22284122 1876947702 1144252002</internalNodes>
          <leafValues>
            -5.2072292566299438e-01 3.7217321991920471e-01</leafValues></_>
        <_>
          <internalNodes>
            0 -1 24 1542979464 2145064441 1108250441 1574899983
            698100217 953494249 722143375 536805386</internalNodes>
          <leafValues>
            -4.8727551102638245e-01 4.0275210142135620e-01</leafValues></_>
        <_>
          <internalNodes>
            0 -1 6 -56627458 -993728417 -617886594 -1494552833
            -745038241 -167810375 -78613828 -570425361</internalNodes>
          <leafValues>
            -5.0109070539474487e-01 3.8631778955459595e-01</leafValues></_>
        <_>
          <internalNodes>
            0 -1 76 -1072700157 -17 -5 -577 -352649233 -1090519041
            -262145 -1039415529</internalNodes>
          <leafValues>
            -3.4660005569458008e-01 5.5764985084533691e-01</leafValues></_>
        <_>
          <internalNodes>
            0 -1 63 -335892 660365980 1529227476 939189106 723098216
            527553919 1053064380 2071724029</internalNodes>
          <leafValues>
            -5.9423643350601196e-01 3.3687895536422729e-01</leafValues></_></weakClassifiers></_>
    <!-- stage 7 -->
    <_>
      <maxWeakCount>9</maxWeakCount>
      <stageThreshold>-2.2317998409271240e+00</stageThreshold>
      <weakClassifiers>
        <_>
          <internalNodes>
            0 -1 7 -293673218 -7201 -79762433 -8458369 -69349377 -45332
            -336592897 -1</internalNodes>
          <leafValues>
            -7.8924441337585449e-01 2.0639417693018913e-02</leafValues></_>
        <_>
          <internalNodes>
            0 -1 78 402669009 -272555 -537919489 -2238477 -1073741825
            -282881 -1081094161 -1347743798</internalNodes>
          <leafValues>
            -5.8725619316101074e-01 3.4266331791877747e-01</leafValues></_>
        <_>
          <internalNodes>
            0 -1 82 -1073496062 -613455017 -80481289 -237505825
            -16793601 -17835362 -81006881 -1073512185</internalNodes>
          <leafValues>
            -4.7466748952865601e-01 4.2588201165199280e-01</leafValues></_>
        <_>
          <internalNodes>
            0 -1 83 -67649648 -1086342691 -585107587 -5294443 -341967395
            -1610909463 -1654947888 234036256</internalNodes>
          <leafValues>
            -5.8249598741531372e-01 3.0753779411315918e-01</leafValues></_>
        <_>
          <internalNodes>
            0 -1 29 1690820610 -1461193010 -1085543049 -479760660
            1625810855 2051959808 1978400767 1078126082</internalNodes>
          <leafValues>
            -7.0244961977005005e-01 2.9210019111633301e-01</leafValues></_>
        <_>
          <internalNodes>
            0 -1 74 -1 -1615052996 2129657844 2147287004 -541573635
            1027375101 534674940 -18433</internalNodes>
          <leafValues>
            -3.6935231089591980e-01 5.1757133007049561e-01</leafValues></_>
        <_>
          <internalNodes>
            0 -1 57 1073988608 -136316969 -111283779 -4719121
            -1276380161 1610605562 -1311774721 6807586</internalNodes>
          <leafValues>
            -6.6593295335769653e-01 2.9152297973632812e-01</leafValues></_>
        <_>
          <internalNodes>
            0 -1 86 -71320313 2147430158 -1611138381 1861214205
            671082242 670826471 -570427642 -487596289</internalNodes>
          <leafValues>
            -3.9582467079162598e-01 4.6880316734313965e-01</leafValues></_>
        <_>
          <internalNodes>
            0 -1 66 -268441974 -1261768789 57115766 -2114986837
            -909397118 1146147600 -468224373 2067787743</internalNodes>
          <leafValues>
            -5.1713132858276367e-01 3.6835479736328125e-01</leafValues></_></weakClassifiers></_>
    <!-- stage 8 -->
    <_>
      <maxWeakCount>9</maxWeakCount>
      <stageThreshold>-1.5460330247879028e+00</stageThreshold>
      <weakClassifiers>
        <_>
          <internalNodes>
            0 -1 12 -425003521 -3146249 -6300161 -1 -1428164609 -16453
            -68191233 -286276099</internalNodes>
          <leafValues>
            -7.4468082189559937e-01 1.0749869048595428e-01</leafValues></_>
        <_>
          <internalNodes>
            0 -1 37 -1682399816 1067023357 -1619443715 -1614840835
            -29602337 -268485681 -738279425 -1074790657</internalNodes>
          <leafValues>
            -5.7640719413757324e-01 3.2650268077850342e-01</leafValues></_>
        <_>
          <internalNodes>
            0 -1 39 -1324288560 -8797967 1811903551 2080199157
            -1141195797 -1086407921 -1162809351 -1657981536</internalNodes>
          <leafValues>
            -5.0836741924285889e-01 3.4940415620803833e-01</leafValues></_>
        <_>
          <internalNodes>
            0 -1 89 -245 -343152146 -314588928 -285802502 -1140859051
            1197861759 -155716864 -403644457</internalNodes>
          <leafValues>
            -4.6971020102500916e-01 3.6264565587043762e-01</leafValues></_>
        <_>
          <internalNodes>
            0 -1 79 -67440642 -1141624424 892657052 1072962004
            2136792060 800619053 1001172984 -1073807363</internalNodes>
          <leafValues>
            -4.7765526175498962e-01 3.7944373488426208e-01</leafValues></_>
        <_>
          <internalNodes>
            0 -1 15 -970528062 -1533875185 109903691 -672151570
            1742916863 -1256012113 -1417596945 -67654865</internalNodes>
          <leafValues>
            -4.7898709774017334e-01 3.4418308734893799e-01</leafValues></_>
        <_>
          <internalNodes>
            0 -1 45 -285480188 -1081173522 1710154944 198476025
            2113608048 802694522 1507938580 2105538559</internalNodes>
          <leafValues>
            -5.5606806278228760e-01 2.8607928752899170e-01</leafValues></_>
        <_>
          <internalNodes>
            0 -1 59 805328080 -35865 -1058849 -34120227 -1292369921
            -1076168805 -41746453 -1149103908</internalNodes>
          <leafValues>
            -5.6611084938049316e-01 2.6872259378433228e-01</leafValues></_>
        <_>
          <internalNodes>
            0 -1 9 -128034 1035743799 -2042692161 933278940 -1295941956
            1520653483 -908271109 -13469218</internalNodes>
          <leafValues>
            -4.6822339296340942e-01 3.4159442782402039e-01</leafValues></_></weakClassifiers></_>
    <!-- stage 9 -->
    <_>
      <maxWeakCount>11</maxWeakCount>
      <stageThreshold>-1.5092464685440063e+00</stageThreshold>
      <weakClassifiers>
        <_>
          <internalNodes>
            0 -1 13 -269484033 -269555732 -579076097 -3152222 -279445505
            -4865857 -69468161 -269484033</internalNodes>
          <leafValues>
            -7.4156278371810913e-01 1.1707840859889984e-01</leafValues></_>
        <_>
          <internalNodes>
            0 -1 27 -4259844 -18467 -537135111 -4220939 -6296065
            -4285969 -134565889 -1076906740</internalNodes>
          <leafValues>
            -5.5989164113998413e-01 3.0511134862899780e-01</leafValues></_>
        <_>
          <internalNodes>
            0 -1 65 -1039941629 -8329 -9 -47105 -1 -1 -503328769
            -804272365</internalNodes>
          <leafValues>
            -3.6731982231140137e-01 4.4800496101379395e-01</leafValues></_>
        <_>
          <internalNodes>
            0 -1 73 -2098950 699144686 388772604 897377419 1329473524
            729031148 2065524216 2144337919</internalNodes>
          <leafValues>
            -5.1648634672164917e-01 3.0302059650421143e-01</leafValues></_>
        <_>
          <internalNodes>
            0 -1 53 -1189061168 -145431632 -801398787 2004079533
            -1093618690 -613335121 990092264 588734976</internalNodes>
          <leafValues>
            -6.0192906856536865e-01 2.7272561192512512e-01</leafValues></_>
        <_>
          <internalNodes>
            0 -1 25 -51385937 1653593890 -290524506 -119114289
            -213922849 341259623 -69992969 -713590921</internalNodes>
          <leafValues>
            -4.8461157083511353e-01 3.2275152206420898e-01</leafValues></_>
        <_>
          <internalNodes>
            0 -1 52 -2163236 1006378476 -604979204 2140421086 935124924
            531392181 805092332 -67617</internalNodes>
          <leafValues>
            -4.7380521893501282e-01 3.1480184197425842e-01</leafValues></_>
        <_>
          <internalNodes>
            0 -1 84 -113307648 1568371993 -176431107 -1252527329
            -475047153 -342103317 -137625631 -1705373679</internalNodes>
          <leafValues>
            -4.7987800836563110e-01 2.9791942238807678e-01</leafValues></_>
        <_>
          <internalNodes>
            0 -1 43 -6816253 -221792704 -586844090 1901581312 -794344450
            1660610432 1934683627 -1071645117</internalNodes>
          <leafValues>
            -3.8612276315689087e-01 3.7668228149414062e-01</leafValues></_>
        <_>
          <internalNodes>
            0 -1 16 1785652868 -595602498 -981089009 -84480261
            1668480335 -1062863640 -1817988111 -134676644</internalNodes>
          <leafValues>
            -4.3840825557708740e-01 3.4906509518623352e-01</leafValues></_>
        <_>
          <internalNodes>
            0 -1 41 454573757 868018175 963294397 2147456375 1260022012
            -1376368483 1001141243 -1076964913</internalNodes>
          <leafValues>
            -4.2445254325866699e-01 3.6738428473472595e-01</leafValues></_></weakClassifiers></_>
    <!-- stage 10 -->
    <_>
      <maxWeakCount>11</maxWeakCount>
      <stageThreshold>-1.5268537998199463e+00</stageThreshold>
      <weakClassifiers>
        <_>
          <internalNodes>
            0 -1 85 -8929 -536881833 -136314881 -167773217 -16786497
            -11105 -539238401 -73409251</internalNodes>
          <leafValues>
            -6.8666023015975952e-01 2.4324324727058411e-01</leafValues></_>
        <_>
          <internalNodes>
            0 -1 2 -487653386 -133121 -600609 1858101410 1869085695
            -17338405 -454311937 -268441613</internalNodes>
          <leafValues>
            -5.7513481378555298e-01 2.7940160036087036e-01</leafValues></_>
        <_>
          <internalNodes>
            0 -1 40 -255067505 -1276124033 201574663 1565515407
            -22030733 -574923437 -3146865 1364981247</internalNodes>
          <leafValues>
            -4.0448212623596191e-01 3.9520850777626038e-01</leafValues></_>
        <_>
          <internalNodes>
            0 -1 75 -4194305 -229508 1073702908 2146975612 763035640
            804028413 867975164 -16641</internalNodes>
          <leafValues>
            -3.1852081418037415e-01 4.5826518535614014e-01</leafValues></_>
        <_>
          <internalNodes>
            0 -1 69 1043860664 448214012 998117361 -8449027 800935416
            -1680126213 -1140950017 1002319869</internalNodes>
          <leafValues>
            -6.1515170335769653e-01 2.4754489958286285e-01</leafValues></_>
        <_>
          <internalNodes>
            0 -1 20 1688679431 150990447 -13 -135301385 -553648129
            -856686594 1928855239 -788513</internalNodes>
          <leafValues>
            -3.0942606925964355e-01 4.8370674252510071e-01</leafValues></_>
        <_>
          <internalNodes>
            0 -1 67 -433389568 2046022985 -211944449 -370150209
            -1902130193 -6321862 1464336267 1111225866</internalNodes>
          <leafValues>
            -5.4127925634384155e-01 2.8131493926048279e-01</leafValues></_>
        <_>
          <internalNodes>
            0 -1 1 -288362897 1718546415 -2005765250 -893754659
            1136281342 1691926667 -607164512 -730569180</internalNodes>
          <leafValues>
            -4.6186670660972595e-01 3.1550759077072144e-01</leafValues></_>
        <_>
          <internalNodes>
            0 -1 47 1347900290 819196721 -652017897 1406237247 22542080
            -1403794501 -276906741 -1158157397</internalNodes>
          <leafValues>
            -4.7095599770545959e-01 3.1341129541397095e-01</leafValues></_>
        <_>
          <internalNodes>
            0 -1 33 -1121398092 -12274884 -1649853441 -537109080
            -1733888472 -80865066 -1251900770 106207296</internalNodes>
          <leafValues>
            -6.7173159122467041e-01 1.9819134473800659e-01</leafValues></_>
        <_>
          <internalNodes>
            0 -1 81 67126273 -67374149 -601923585 -1090533897
            -1030779925 -618930021 -383387729 -2145693225</internalNodes>
          <leafValues>
            -5.2559387683868408e-01 2.9789787530899048e-01</leafValues></_></weakClassifiers></_>
    <!-- stage 11 -->
    <_>
      <maxWeakCount>10</maxWeakCount>
      <stageThreshold>-1.6039499044418335e+00</stageThreshold>
      <weakClassifiers>
        <_>
          <internalNodes>
            0 -1 21 -2097153 818937823 -7086089 -102771233 -72351745
            -1074012965 -5244929 -67108865</internalNodes>
          <leafValues>
            -6.7541116476058960e-01 2.8531855344772339e-01</leafValues></_>
        <_>
          <internalNodes>
            0 -1 32 -2146745053 -3148929 -537657353 -1027 -268439621
            -67108865 -238026753 -1045182681</internalNodes>
          <leafValues>
            -5.2387624979019165e-01 2.9325658082962036e-01</leafValues></_>
        <_>
          <internalNodes>
            0 -1 10 -1118210 -6641697 1048500607 1072840092 -876848707
            -8588836 -70323201 -26280105</internalNodes>
          <leafValues>
            -4.6501421928405762e-01 3.2484424114227295e-01</leafValues></_>
        <_>
          <internalNodes>
            0 -1 87 -50397429 1794832605 -14484736 -865146388 -269756142
            862334847 -411583712 -405344323</internalNodes>
          <leafValues>
            -4.4597277045249939e-01 3.2450476288795471e-01</leafValues></_>
        <_>
          <internalNodes>
            0 -1 77 -4222988 1599879452 947756028 798507000 1267514104
            1068252344 464314300 536641531</internalNodes>
          <leafValues>
            -6.4624726772308350e-01 2.5760051608085632e-01</leafValues></_>
        <_>
          <internalNodes>
            0 -1 46 -717379687 -680566813 94013498 -751328463 -957485425
            -1123452397 -823190065 62849695</internalNodes>
          <leafValues>
            -4.3716183304786682e-01 3.1951388716697693e-01</leafValues></_>
        <_>
          <internalNodes>
            0 -1 48 -838943298 2065736118 -142895280 1070264782
            -1183402756 791704024 1069509764 1568669106</internalNodes>
          <leafValues>
            -5.3220498561859131e-01 2.5707063078880310e-01</leafValues></_>
        <_>
          <internalNodes>
            0 -1 5 -356321050 -800161938 -364069266 -487848386 -62393441
            -334399373 2139453919 -378178633</internalNodes>
          <leafValues>
            -5.5480021238327026e-01 2.5675678253173828e-01</leafValues></_>
        <_>
          <internalNodes>
            0 -1 55 2128608939 1947332599 -1536481076 1355672075
            1644626886 337334901 -950806805 2065155519</internalNodes>
          <leafValues>
            -4.4009956717491150e-01 2.9857409000396729e-01</leafValues></_>
        <_>
          <internalNodes>
            0 -1 60 268436481 -69716106 -6696993 -37945 -1145058305
            -41038341 491650815 449580181</internalNodes>
          <leafValues>
            -7.2812259197235107e-01 1.8265283107757568e-01</leafValues></_></weakClassifiers></_></stages>
  <features>
    <_>
      <rect>
        0 0 4 1</rect></_>
    <_>
      <rect>
        0 1 1 3</rect></_>
    <_>
      <rect>
        0 1 6 1</rect></_>
    <_>
      <rect>
        0 1 14 1</rect></_>
    <_>
      <rect>
        0 3 5 3</rect></_>
    <_>
      <rect>
        0 4 13 1</rect></_>
    <_>
      <rect>
        0 6 3 2</rect></_>
    <_>
      <rect>
        0 9 5 1</rect></_>
    <_>
      <rect>
        0 9 15 1</rect></_>
    <_>
      <rect>
        0 10 4 1</rect></_>
    <_>
      <rect>
        0 10 5 1</rect></_>
    <_>
      <rect>
        0 10 8 1</rect></_>
    <_>
      <rect>
        1 0 3 1</rect></_>
    <_>
      <rect>
        1 1 3 1</rect></_>
    <_>
      <rect>
        1 3 4 2</rect></_>
    <_>
      <rect>
        1 3 16 1</rect></_>
    <_>
      <rect>
        1 5 1 2</rect></_>
    <_>
      <rect>
        1 10 11 1</rect></_>
    <_>
      <rect>
        2 0 6 1</rect></_>
    <_>
      <rect>
        3 1 14 1</rect></_>
    <_>
      <rect>
        3 2 1 1</rect></_>
    <_>
      <rect>
        3 2 1 2</rect></_>
    <_>
      <rect>
        4 0 14 1</rect></_>
    <_>
      <rect>
        4 2 1 2</rect></_>
    <_>
      <rect>
        4 2 15 1</rect></_>
    <_>
      <rect>
        4 4 2 1</rect></_>
    <_>
      <rect>
        4 10 15 1</rect></_>
    <_>
      <rect>
        4 10 16 1</rect></_>
    <_>
      <rect>
        5 0 1 2</rect></_>
    <_>
      <rect>
        5 0 2 3</rect></_>
    <_>
      <rect>
        5 0 14 1</rect></_>
    <_>
      <rect>
        5 5 1 1</rect></_>
    <_>
      <rect>
        6 0 1 2</rect></_>
    <_>
      <rect>
        6 1 10 1</rect></_>
    <_>
      <rect>
        6 1 13 1</rect></_>
    <_>
      <rect>
        7 0 1 2</rect></_>
    <_>
      <rect>
        7 10 10 1</rect></_>
    <_>
      <rect>
        8 9 8 1</rect></_>
    <_>
      <rect>
        8 10 10 1</rect></_>
    <_>
      <rect>
        9 1 13 1</rect></_>
    <_>
      <rect>
        9 2 6 3</rect></_>
    <_>
      <rect>
        9 9 4 1</rect></_>
    <_>
      <rect>
        9 9 13 1</rect></_>
    <_>
      <rect>
        11 2 3 2</rect></_>
    <_>
      <rect>
        11 10 12 1</rect></_>
    <_>
      <rect>
        12 3 1 3</rect></_>
    <_>
      <rect>
        12 8 10 1</rect></_>
    <_>
      <rect>
        13 3 13 1</rect></_>
    <_>
      <rect>
        13 4 1 3</rect></_>
    <_>
      <rect>
        15 0 1 3</rect></_>
    <_>
      <rect>
        15 4 1 3</rect></_>
    <_>
      <rect>
        16 0 4 1</rect></_>
    <_>
      <rect>
        16 7 1 2</rect></_>
    <_>
      <rect>
        17 1 9 1</rect></_>
    <_>
      <rect>
        17 4 2 3</rect></_>
    <_>
      <rect>
        17 4 3 2</rect></_>
    <_>
      <rect>
        17 5 1 1</rect></_>
    <_>
      <rect>
        18 0 2 2</rect></_>
    <_>
      <rect>
        18 10 9 1</rect></_>
    <_>
      <rect>
        19 0 3 1</rect></_>
    <_>
      <rect>
        20 0 1 1</rect></_>
    <_>
      <rect>
        20 0 4 1</rect></_>
    <_>
      <rect>
        21 0 10 1</rect></_>
    <_>
      <rect>
        21 4 1 3</rect></_>
    <_>
      <rect>
        21 7 1 2</rect></_>
    <_>
      <rect>
        22 0 1 2</rect></_>
    <_>
      <rect>
        22 4 2 2</rect></_>
    <_>
      <rect>
        23 0 1 3</rect></_>
    <_>
      <rect>
        24 0 1 3</rect></_>
    <_>
      <rect>
        25 9 6 1</rect></_>
    <_>
      <rect>
        26 4 2 3</rect></_>
    <_>
      <rect>
        27 0 1 2</rect></_>
    <_>
      <rect>
        27 10 5 1</rect></_>
    <_>
      <rect>
        28 4 2 3</rect></_>
    <_>
      <rect>
        28 7 1 2</rect></_>
    <_>
      <rect>
        29 7 1 2</rect></_>
    <_>
      <rect>
        31 0 1 2</rect></_>
    <_>
      <rect>
        31 7 2 2</rect></_>
    <_>
      <rect>
        32 0 4 1</rect></_>
    <_>
      <rect>
        33 7 1 2</rect></_>
    <_>
      <rect>
        34 4 2 3</rect></_>
    <_>
      <rect>
        35 1 1 1</rect></_>
    <_>
      <rect>
        37 0 1 2</rect></_>
    <_>
      <rect>
        37 10 5 1</rect></_>
    <_>
      <rect>
        40 0 4 1</rect></_>
    <_>
      <rect>
        49 0 1 1</rect></_>
    <_>
      <rect>
        49 1 1 1</rect></_>
    <_>
      <rect>
        49 3 1 2</rect></_>
    <_>
      <rect>
        49 4 1 2</rect></_>
    <_>
      <rect>
        49 7 1 1</rect></_></features></cascade>
</opencv_storage>
