<?xml version="1.0"?>
<opencv_storage>
<cascade>
  <stageType>BOOST</stageType>
  <featureType>LBP</featureType>
  <height>18</height>
  <width>24</width>
  <stageParams>
    <boostType>GAB</boostType>
    <minHitRate>9.9500000476837158e-01</minHitRate>
    <maxFalseAlarm>4.4999998807907104e-01</maxFalseAlarm>
    <weightTrimRate>9.4999999999999996e-01</weightTrimRate>
    <maxDepth>1</maxDepth>
    <maxWeakCount>100</maxWeakCount></stageParams>
  <featureParams>
    <maxCatCount>256</maxCatCount>
    <featSize>1</featSize></featureParams>
  <stageNum>9</stageNum>
  <stages>
    <!-- stage 0 -->
    <_>
      <maxWeakCount>3</maxWeakCount>
      <stageThreshold>-1.5309625864028931e+00</stageThreshold>
      <weakClassifiers>
        <_>
          <internalNodes>
            0 -1 5 -1 -2108485 -741613569 -131585 -84936193 2080111003
            -544211969 -1025</internalNodes>
          <leafValues>
            -9.6958172321319580e-01 4.6583852171897888e-01</leafValues></_>
        <_>
          <internalNodes>
            0 -1 19 -8651041 -570115968 -338209921 1577042655 -7341057
            -74827377 2040510463 -12545</internalNodes>
          <leafValues>
            -9.3527847528457642e-01 4.0456852316856384e-01</leafValues></_>
        <_>
          <internalNodes>
            0 -1 0 -287836410 668980191 -919605054 -8391177 -85724169
            -343413745 -2622593 -8388617</internalNodes>
          <leafValues>
            -9.6594935655593872e-01 4.2652165889739990e-01</leafValues></_></weakClassifiers></_>
    <!-- stage 1 -->
    <_>
      <maxWeakCount>3</maxWeakCount>
      <stageThreshold>-1.5647442340850830e+00</stageThreshold>
      <weakClassifiers>
        <_>
          <internalNodes>
            0 -1 4 2147483647 -8193 -539107841 -2100225 -7410689
            -67467585 -542126081 -1</internalNodes>
          <leafValues>
            -9.6404397487640381e-01 2.5748503208160400e-01</leafValues></_>
        <_>
          <internalNodes>
            0 -1 6 -2624001 -2105441 -665325057 -78664773 1076941053
            -575686146 1434713087 -1025</internalNodes>
          <leafValues>
            -9.3603366613388062e-01 2.8920254111289978e-01</leafValues></_>
        <_>
          <internalNodes>
            0 -1 13 1071414781 -2524327 -1785071105 -6313505 -1160856577
            -74716950 1804581885 -1080288580</internalNodes>
          <leafValues>
            -8.8619560003280640e-01 5.4975390434265137e-01</leafValues></_></weakClassifiers></_>
    <!-- stage 2 -->
    <_>
      <maxWeakCount>4</maxWeakCount>
      <stageThreshold>-2.2104151248931885e+00</stageThreshold>
      <weakClassifiers>
        <_>
          <internalNodes>
            0 -1 26 -1 -212346137 -250094113 -3681289 -203424785
            -70258485 -551552001 -1</internalNodes>
          <leafValues>
            -9.4886720180511475e-01 5.9523808956146240e-01</leafValues></_>
        <_>
          <internalNodes>
            0 -1 21 -739251253 -146017506 1079050314 -236984501
            -783815989 -242284021 -744498273 -136314897</internalNodes>
          <leafValues>
            -8.8729798793792725e-01 4.3572092056274414e-01</leafValues></_>
        <_>
          <internalNodes>
            0 -1 30 -319828209 2145377791 -554053129 -2099337 -5246081
            2059395515 -4460545 -1</internalNodes>
          <leafValues>
            -8.7717086076736450e-01 5.4310101270675659e-01</leafValues></_>
        <_>
          <internalNodes>
            0 -1 24 -931141753 368036647 1075043022 -44572197
            -1035746961 -1035304374 1739844511 -33554441</internalNodes>
          <leafValues>
            -8.2009786367416382e-01 6.5950709581375122e-01</leafValues></_></weakClassifiers></_>
    <!-- stage 3 -->
    <_>
      <maxWeakCount>4</maxWeakCount>
      <stageThreshold>-2.2183864116668701e+00</stageThreshold>
      <weakClassifiers>
        <_>
          <internalNodes>
            0 -1 17 -35651585 -2595 -33685505 -1 -71303169 -16646
            -89396225 -21846</internalNodes>
          <leafValues>
            -9.5499473810195923e-01 1.8571428954601288e-01</leafValues></_>
        <_>
          <internalNodes>
            0 -1 15 2045575165 -133891 -1114112001 -25603 -340017153
            -1074004225 2146435007 -19734</internalNodes>
          <leafValues>
            -8.6820095777511597e-01 3.7540704011917114e-01</leafValues></_>
        <_>
          <internalNodes>
            0 -1 3 1877688107 -34817 -6553601 -42497 -268697665 -3145989
            -2 -50241</internalNodes>
          <leafValues>
            -8.9373654127120972e-01 4.3168067932128906e-01</leafValues></_>
        <_>
          <internalNodes>
            0 -1 27 -37224481 1883433831 1474259967 -511709257 -1094
            1367862015 2074078207 -537396289</internalNodes>
          <leafValues>
            -7.4506223201751709e-01 6.6406857967376709e-01</leafValues></_></weakClassifiers></_>
    <!-- stage 4 -->
    <_>
      <maxWeakCount>3</maxWeakCount>
      <stageThreshold>-1.9072464704513550e+00</stageThreshold>
      <weakClassifiers>
        <_>
          <internalNodes>
            0 -1 12 -134873089 -2113539 1601812991 -9249 -1145323521
            -4603905 -1145062401 -1073805142</internalNodes>
          <leafValues>
            -9.6140652894973755e-01 -1.3419912755489349e-01</leafValues></_>
        <_>
          <internalNodes>
            0 -1 9 -38478339 -140289 -2662497 -320033 -1183556100
            -1164306 1539178239 -1677757442</internalNodes>
          <leafValues>
            -9.0807920694351196e-01 9.2746369540691376e-02</leafValues></_>
        <_>
          <internalNodes>
            0 -1 16 -218633498 1388798954 -163086508 1465908125
            -383255066 415793307 -15205377 -11535361</internalNodes>
          <leafValues>
            -8.6496818065643311e-01 4.0004605054855347e-01</leafValues></_></weakClassifiers></_>
    <!-- stage 5 -->
    <_>
      <maxWeakCount>3</maxWeakCount>
      <stageThreshold>-1.7395216226577759e+00</stageThreshold>
      <weakClassifiers>
        <_>
          <internalNodes>
            0 -1 25 -1 -2361857 -2105345 -8745 -1075077889 -87031873
            -3153953 -1025</internalNodes>
          <leafValues>
            -9.4259566068649292e-01 1.9540229439735413e-01</leafValues></_>
        <_>
          <internalNodes>
            0 -1 31 2147479343 1677721599 -141557777 -257 1198522235
            2005789183 -1025 -2097153</internalNodes>
          <leafValues>
            -9.3430566787719727e-01 1.8863214179873466e-02</leafValues></_>
        <_>
          <internalNodes>
            0 -1 10 1071407093 -8421377 -544604193 -2239489 -2097155
            -1074143233 -1142226945 -1342554792</internalNodes>
          <leafValues>
            -8.1578922271728516e-01 3.8596394658088684e-01</leafValues></_></weakClassifiers></_>
    <!-- stage 6 -->
    <_>
      <maxWeakCount>4</maxWeakCount>
      <stageThreshold>-2.2754170894622803e+00</stageThreshold>
      <weakClassifiers>
        <_>
          <internalNodes>
            0 -1 14 -1 -2115585 -176305697 -547881505 -1090538515
            -81818377 -536871937 -2097153</internalNodes>
          <leafValues>
            -9.5180720090866089e-01 -7.3170728981494904e-02</leafValues></_>
        <_>
          <internalNodes>
            0 -1 23 -11803665 2131228653 2113929151 -537135109
            -537020417 -608437781 -676610561 -257</internalNodes>
          <leafValues>
            -8.6584562063217163e-01 2.1771191060543060e-01</leafValues></_>
        <_>
          <internalNodes>
            0 -1 1 -469768441 1861939142 -101189153 -252707870 -1048732
            -210157069 -35651593 -185073673</internalNodes>
          <leafValues>
            -8.3500248193740845e-01 4.5465931296348572e-01</leafValues></_>
        <_>
          <internalNodes>
            0 -1 2 -596165773 -49185 -35930113 -2395266 -1143997445
            -67073 -3 -268826632</internalNodes>
          <leafValues>
            -7.0631945133209229e-01 6.0090506076812744e-01</leafValues></_></weakClassifiers></_>
    <!-- stage 7 -->
    <_>
      <maxWeakCount>5</maxWeakCount>
      <stageThreshold>-2.3501284122467041e+00</stageThreshold>
      <weakClassifiers>
        <_>
          <internalNodes>
            0 -1 29 -1 -135268129 2141191167 -170925342 -69468209
            -1141118757 -272647169 -4129</internalNodes>
          <leafValues>
            -9.5928972959518433e-01 -3.0685919523239136e-01</leafValues></_>
        <_>
          <internalNodes>
            0 -1 22 -748691477 -149550 -1005563771 1610478559 -783155753
            -41965361 -272892417 -2097665</internalNodes>
          <leafValues>
            -8.6986625194549561e-01 1.6130067408084869e-01</leafValues></_>
        <_>
          <internalNodes>
            0 -1 7 -294652125 1742733311 -35914273 -25174529 -756025357
            -13841 -456130561 -16705</internalNodes>
          <leafValues>
            -8.3872514963150024e-01 3.9396873116493225e-01</leafValues></_>
        <_>
          <internalNodes>
            0 -1 17 2029296956 -142937092 2146938879 -536870913
            -606339075 -2154498 -22369281 -1376049014</internalNodes>
          <leafValues>
            -8.2686513662338257e-01 4.5335721969604492e-01</leafValues></_>
        <_>
          <internalNodes>
            0 -1 11 1432354815 1435891165 -312421 2146958263 -782237705
            1414331129 -6296065 -268570625</internalNodes>
          <leafValues>
            -8.2769846916198730e-01 4.9218723177909851e-01</leafValues></_></weakClassifiers></_>
    <!-- stage 8 -->
    <_>
      <maxWeakCount>5</maxWeakCount>
      <stageThreshold>-2.1180453300476074e+00</stageThreshold>
      <weakClassifiers>
        <_>
          <internalNodes>
            0 -1 14 -1 -2106881 -43001345 -681574497 -1041 -11560709
            -541066241 -2097153</internalNodes>
          <leafValues>
            -9.4366782903671265e-01 7.8431375324726105e-02</leafValues></_>
        <_>
          <internalNodes>
            0 -1 28 -211815445 1392769979 -140789249 1344142031
            -86019333 2141176319 -1502642197 -1053713</internalNodes>
          <leafValues>
            -8.7148845195770264e-01 8.2288697361946106e-02</leafValues></_>
        <_>
          <internalNodes>
            0 -1 20 -3342340 -1682900996 -6823937 -4326404 -23069697
            -1090519557 -1090643297 -612385332</internalNodes>
          <leafValues>
            -8.2811111211776733e-01 3.4912890195846558e-01</leafValues></_>
        <_>
          <internalNodes>
            0 -1 8 641664551 1870633439 -1073741833 -1075855361
            -1143078921 1072688283 -269485313 -1048705</internalNodes>
          <leafValues>
            -8.6654156446456909e-01 4.1278049349784851e-01</leafValues></_>
        <_>
          <internalNodes>
            0 -1 18 -5253214 1988850031 -920134685 -671653921 -740431879
            1728200879 -1291337729 -8684033</internalNodes>
          <leafValues>
            -7.3925352096557617e-01 5.5334216356277466e-01</leafValues></_></weakClassifiers></_></stages>
  <features>
    <_>
      <rect>
        0 0 3 5</rect></_>
    <_>
      <rect>
        0 3 1 4</rect></_>
    <_>
      <rect>
        1 0 4 1</rect></_>
    <_>
      <rect>
        1 0 4 2</rect></_>
    <_>
      <rect>
        1 0 7 3</rect></_>
    <_>
      <rect>
        2 3 7 2</rect></_>
    <_>
      <rect>
        2 4 5 3</rect></_>
    <_>
      <rect>
        3 2 2 2</rect></_>
    <_>
      <rect>
        3 4 1 1</rect></_>
    <_>
      <rect>
        3 7 4 1</rect></_>
    <_>
      <rect>
        3 15 4 1</rect></_>
    <_>
      <rect>
        4 3 6 3</rect></_>
    <_>
      <rect>
        4 8 6 1</rect></_>
    <_>
      <rect>
        6 15 5 1</rect></_>
    <_>
      <rect>
        7 5 2 1</rect></_>
    <_>
      <rect>
        7 7 4 1</rect></_>
    <_>
      <rect>
        8 4 1 4</rect></_>
    <_>
      <rect>
        8 8 4 1</rect></_>
    <_>
      <rect>
        9 4 1 1</rect></_>
    <_>
      <rect>
        9 6 4 2</rect></_>
    <_>
      <rect>
        9 7 4 1</rect></_>
    <_>
      <rect>
        10 4 1 3</rect></_>
    <_>
      <rect>
        10 5 1 2</rect></_>
    <_>
      <rect>
        11 2 2 4</rect></_>
    <_>
      <rect>
        11 4 1 3</rect></_>
    <_>
      <rect>
        11 5 2 1</rect></_>
    <_>
      <rect>
        13 3 2 4</rect></_>
    <_>
      <rect>
        13 4 2 3</rect></_>
    <_>
      <rect>
        15 2 1 4</rect></_>
    <_>
      <rect>
        15 5 2 3</rect></_>
    <_>
      <rect>
        16 3 2 1</rect></_>
    <_>
      <rect>
        18 2 2 2</rect></_></features></cascade>
</opencv_storage>
